{"weights_input_hidden": [[0.36533412891409545, -0.4469015138982122, 0.6256632522869711, 0.11202977701191419, -0.6461326939515047, -1.2241918791812703, -0.6106542958861448, -0.07387532159159108, -0.23822993570484582, -0.12553778209994162, -0.10077126665231147, -0.499857025678454, 0.24503454296788446, -1.7741012795191853, 0.13949126711533955, 0.24928595363039036, -0.8589960811674301, -0.30956311259190217, -0.2836045068002794, -0.4284253355260102], [1.928043437296967, -0.611580167294308, 0.4625304157216214, -0.11293522247876381, 1.2122936190191762, 1.8709454433021502, -0.7437800513586685, 0.5066685837095791, -0.5450043749095774, 0.6800810979527263, -0.33823760420695, -1.5921659121793248, 0.6960497607598803, 1.828068702663654, -0.20340173872190317, 2.283960947365986, 1.5637209876405505, -0.8938757202400326, 0.18786222225917162, -2.1176718829812056], [-0.3901031866711345, -0.1326201865772854, 0.19703473071133437, -0.10999129552040153, -0.7900991209189678, -1.164785005482772, -0.2590714350089661, 0.4224914193453071, -0.09873819925986507, -0.38316888298172397, 0.3408438851666058, -0.34562773979789224, 0.010083718274757765, -1.8819314938022031, 0.014558829343767744, -0.48730741789885135, -0.8868151738489626, -0.3101817821288202, -0.1015894611492725, 0.05839867167641194], [1.4440105411510706, -0.8806614313269067, 1.22490791223102, -0.47348303510787393, 1.0196041234523736, 0.3183645847544052, -1.023821873154641, 1.204077030618476, -0.7035543184846778, 1.3560448880858729, -0.044304926363817256, 0.15076336694030726, -0.6191509448806956, 1.8049682884867826, -0.9903780243097776, 2.233279957513486, 1.2407786331033246, -1.6094146461363825, 1.405311767223533, -2.152215362147522], [-0.9812785184170105, 0.4064735723399605, -0.23932077866912582, -0.3934945484205941, -0.6741098110737309, -0.7199994613624255, 0.09707347295453643, 0.7985714743556156, 0.06491390543058537, -0.6906848455898728, 0.1253032307174203, -0.9023709336507082, 0.3175113894361651, -1.9774404538177504, 0.20242131983802164, -1.4949985197564344, -0.6030604775624092, -0.01820298460505727, -0.6190307087699042, 0.17161058830177706], [0.5310396973544729, -0.17589633989817044, 0.9765476335951121, -0.2492120562008764, 0.6245280029208938, 0.07209903500409692, -0.5237276051462161, 1.2150040127553938, -0.19950796382318936, 0.6311766420658267, 0.1310586531793389, -0.208032115860224, 0.07924110319806561, 0.38874879985523886, -0.35156780768308254, 0.8097194661330438, 0.6327835813466933, -1.0164878493673113, 0.9807493899154086, -1.3812584267374794], [-2.1014408445051114, 1.154543814895209, -0.7265869690243159, -0.3994939850526907, -0.003030963004779403, -0.7349386050250174, 0.2953601732053237, 2.0882143067399923, 0.027954915177227795, -0.6193921334201387, -0.052332353804336054, -1.4455022477774233, 0.4646202396119011, -1.2089531367137978, 0.3704392919204507, -2.803844073350288, -0.8016652309603064, 0.007700271298135696, -0.5585647737995446, -0.0669232887449582], [-1.540252603039824, 1.5737893181093776, -0.11784226373296981, -0.00011634917688439534, -0.00460309305399894, -0.3777707906147237, 0.9677729801888291, 2.161903357978307, 0.9013858983382214, -0.08584767789429837, 0.6439182793789384, -0.8647547307698483, 0.7607384570220443, -1.9234717903644603, 0.6659756209471182, -2.973109412545158, -0.3222616069395245, 0.4334487551343885, 0.48902208585720636, 0.31451021589938255], [-2.9007853601324305, 1.5737956387479288, -0.8472632185331438, -0.3148026531788029, 0.5733170510198863, -0.7780489888195529, 0.09900662220211535, 3.0406390691082152, 0.07920133926226829, -0.5121742598365925, -0.147281019934775, -1.88500287208091, 0.7968230659874226, -0.2676701939839415, 0.4755804864309474, -3.6683099323104824, -1.1018111546314304, -0.3006372929753973, -0.4087525827187964, -0.93033797420164], [-2.812970913855148, 2.608744914776662, -0.27124242082098105, 0.1129057965803352, -0.5118490369232648, -0.5243672015015728, 1.3383901202767519, 2.9128743028897643, 1.5374463570569203, -0.8197611031220247, 0.8641800319007845, -1.7203027219931604, 1.6695359783535295, -3.328638551225528, 1.1962525968213507, -5.269680802076432, -1.1494244601133727, 0.8741568919419132, -0.019663323271874943, 0.4754235486015752], [-0.28923568411310463, -0.08991935517480922, -0.6007859111556209, -0.09061410886340539, 0.11469078382101724, -0.5907657991927636, 0.02958052467831379, -0.059153052850030335, -0.2221672170529823, -0.07435204908198248, -0.3116089489001502, -0.06990960033848456, -0.09700918449986555, -0.330058028825228, -0.2246606082405834, -0.12127834833687404, -0.13503615416705633, 0.07347338161399761, -0.05978992453003038, 0.3658138843138246], [1.2448912136600014, -0.6510553264330285, 0.9545798427188502, -0.29254299697249436, -0.3477249253193213, 0.3352515367782881, -0.41617542877678587, -0.25859504166062997, -0.1836619150916622, 0.20735902947224544, 0.5842903100490915, 0.3342428395547095, -0.3657288215674412, -0.11673271195795427, -0.365878468659415, 1.281169861205337, 0.3939736836741044, -0.7638326959495986, 0.6075091727371322, -0.5389972854796471], [-0.046266787847053875, -0.06529220601281653, -0.41162106876284354, -0.5096058450474961, 0.08133077298562782, -0.06551823961376474, -0.07907223883476379, -0.22116154723140805, -0.20485349903466893, 0.029239751887096144, -0.3448527848629459, 0.26601383698799325, -0.41686789395034507, 0.37090677973529584, -0.7100893462716756, 0.38754894552061075, 0.3863155419932595, -0.20145151021110988, -0.04362126744242056, 0.11144398424749079], [1.0511652509715628, -0.6566478772582441, 0.8057488173935646, -0.03432103648371278, -0.8413164504735908, 0.3986852312506012, -0.16517621434768226, -1.422293625931829, -0.1798134149136932, -0.37090354376219226, 0.6117547644800989, 0.6667115082842567, -0.21285576918343985, -1.1033614872048045, 0.14238273558749107, 1.125557958647436, 0.22608545949281703, -0.06181293454683148, -0.09104469693134146, 0.5735415511617903], [0.0011282689544465294, -0.17612697399931282, -0.6066719375211643, -0.717450630364592, 0.42024366555273585, -0.02829290133358933, -0.12410126729116167, -0.3992265654763248, -0.4267374907218219, -0.0048286739164897195, -0.5224495787676289, 0.4178399709106894, -0.5746594550874471, 0.984904683724561, -0.9104274313909972, 0.6044682232331915, 0.6034444299995404, -0.40958977624683546, -0.06082172196623596, -0.0035703664633050794], [0.46446062864273, -0.5555203811394372, 0.2806865474811575, 0.21219888931102523, -0.9323007256476961, 0.3167021690735157, 0.445947339066951, -2.059675262109283, 0.12444578828973317, -0.49447268211815265, 0.3230005077351945, 1.0271607931068125, -0.4790616366598715, -1.6043221849635678, 0.3990485945062776, 0.8315259510751568, 0.15210569278267108, 0.46790718246557333, -0.3254427653083914, 1.5468136581215537], [0.06847230238617748, -0.10098451519386255, -0.5333563272357688, -0.8241057484152579, 0.6848066938289149, 0.2921256292630358, -0.2383730983186458, -0.438115439825539, -0.49124477954016427, -0.07149727556433016, -0.5397612541067145, 0.6983526723206988, -0.8308122639168856, 1.492447595069595, -1.0677012112912767, 0.7293753344809402, 0.7894099526851833, -0.4733657410758384, -0.14463963001104232, -0.2354297740715746], [0.4054957922400953, -0.4204509726724585, 0.020344527471397752, 0.2923663517093174, -1.03352280358079, 0.17873020411714144, 0.6668940750642094, -2.4747651445884453, 0.14217406020080875, -0.5781779086071189, 0.22401201574590812, 1.3596132343267362, -0.2912817543533066, -1.9551489245504126, 0.47809731913732495, 0.5885829413650033, -0.07649511080772782, 0.8132736120571907, -0.43081500571822934, 1.9373379719192163], [-0.11714666258873827, -0.08741784325196292, -0.31352052117145257, -0.020388247649657985, 0.3010671305353841, -0.5617119764381462, -0.014796170268623593, -0.025020289795081623, -0.2059006440345107, 0.022928511218478442, -0.42763596957473377, -0.2332697293332636, -0.09767460298786418, 0.09366563080604824, -0.23502960680661897, 0.07630196308621445, -0.11798888372431375, -0.17194120686780093, -0.019358453665337887, -0.13843621819425816], [0.5888834276997419, 0.09148014087744175, 0.24307924519673463, 0.10006081714648714, -0.11467137922330843, 0.8763076175392261, -0.03380139874126229, -0.32764041149000056, 0.11160000331360875, -0.06924792329638764, 0.44484446759508584, -0.5298546029881723, 0.3427024629026999, -0.12177398085772485, 0.23349056799277013, 0.2941002616281588, 0.3103206000926344, 0.032480742578192036, -0.01335605189920981, -0.03717818307364535], [-0.08958839197959101, -0.09386473609623361, -0.07088859175990068, -0.0841476443233027, -0.07965230345477275, 0.05185256935341714, -0.09389153083284059, -0.4004847329373539, -0.038031498882708806, -0.2067970173356161, -0.07296117931370052, -0.03892884189738419, 0.055989328421119706, 0.04648065748983676, -0.1779631435636834, 0.14197242435173865, -0.003020104544341374, -0.06665518212599808, -0.14586930922303853, 0.16078498249888645], [-0.1328886892446768, 0.4925552469463133, -0.6025942108756227, 0.133140911585719, 0.011542937178473892, 0.0342421488636127, 0.26000376541565273, -0.08132970867074273, 0.17307692779030706, -0.20799776617590154, -0.1575810701454791, 0.20517672258720088, 0.08962246385131603, 0.10992387411250439, 0.2724582157430371, -0.40202437766347, -0.28367658890885933, 0.3812044528239952, -0.19287602021369823, 0.10063899181278355], [0.17141804631553542, -0.10943069753970144, 0.339990131896205, -0.27140367404060645, -0.26533269074471594, 0.34844381176936423, -0.16075910517426265, -0.28751299762515564, -0.12117226780902746, -0.43086555479693445, 0.3763108775745677, -0.15057884237431163, 0.0007598902408847068, 0.12800049050931572, -0.22414171340170277, 0.17250586776333635, -0.08080445164365965, -0.13869631018637857, -0.35062888948183607, -0.06397472277999268], [-1.4928974115465203, 1.1768454795862542, -2.0607123085422456, 0.23964695217208856, 2.282733329444741, -0.820536527459671, 0.5691880492339183, 1.1464298654676282, 0.0733033174391308, 0.8504698328056789, -1.8329032783313575, 1.1039770711475059, -0.4915864485350368, 2.883845727018252, -0.044675381009458504, -0.6720332151886542, 0.09046200070752064, 0.27125420937660294, 0.09527139911680735, -0.5630758344841102], [0.5033333023710765, -0.16408544636568576, 0.7382190748234289, -0.35251524308305554, -0.41804099106270853, 0.487524333820589, -0.6192050426711938, -0.27876919824895474, -0.03279586398212736, -0.3970080643321392, 0.5386355190012571, -0.1920176861872159, -0.012657257068027401, 0.261354136599404, -0.16134462770447724, 0.12813007623332814, -0.029793817792323846, -0.429755917533084, -0.21745938420242863, -0.21767304342681898], [-2.12455063566052, 1.6575286330401389, -3.023879689272591, 0.2604840479512089, 3.5920292631841084, -1.4940579589548961, 0.6701758280389479, 2.0681734006478325, 0.11315273137665562, 1.3179349656125026, -2.75389914402597, 1.4257691208101093, -0.5803924933999681, 4.770942349236407, -0.3787669202017644, -1.2012789456862045, 0.20171077973201948, 0.0852831408851195, 0.1318180441290975, -1.5328599678945134], [0.09544217055197762, -0.3304515694985947, -0.05195206609116843, 0.21458783677947804, 0.3162689430193553, -0.5129713513578135, -0.2441742503062931, -0.32407272688609445, -0.2812198696492468, 0.23393346189028766, -0.34257998570616144, -0.10201809964722258, 0.20000732284413614, 0.11273015807074446, 0.04408428150841192, 0.4677665368582058, -0.09532757553703719, -0.1170978567159094, -0.17378058171132083, -0.34223790114652325], [1.0232062094866687, 0.1772192456119053, 0.042751953727873264, 0.2823043494153204, -0.3342922904999685, 1.373782564797473, -0.10321640470632977, -0.7268658953945912, 0.10788367898514954, -0.40891227601692176, 0.3925361659308438, -1.3131777330673655, 1.0978324714009453, -0.3160319561103089, 0.8286617593293077, 0.1730763397740396, 0.040736394209759226, 0.2836019674981587, -0.7591051334870862, -0.1614078418270102], [-0.6060093564386345, -0.20918358649663502, -0.8460703994358234, 0.22689272740221358, 0.301433117366268, -0.08821792973290596, 0.663588771419037, -0.36477944311867505, 0.17911819768088624, 0.1752844159792305, -0.3919859347909184, 0.35356184315661715, -0.15271800720383408, -0.11925751480517005, -0.02404291775286868, 0.08650021119720969, 0.297056033537807, 0.741919433939735, 0.1735028710446359, 1.030170258090769], [0.5133516119805789, 0.3838198583169147, -0.0274848033063244, 0.23668523883162315, -0.9239399254523855, 0.471680922166337, -0.13976005029172944, -0.9250955730903891, 0.14502747221064108, -0.8941669725440051, 0.45063617081467444, -0.8248587137625328, 0.7118874675936904, -0.7897470292064335, 0.9679136472293408, -0.4243945042402391, -0.6717148398787302, 0.4866193950194617, -1.1261195759719582, 0.07493688644420043], [-0.3208000350832605, -0.35720668652182996, -0.3186997231645544, 0.19295409443571246, -0.04421198599973827, 0.1803073131418439, 0.3438447758006561, -0.2630289517748655, 0.13875985757337123, 0.16093260885395463, 0.030189927512170114, 0.5753942308530939, -0.1818426085842414, -0.17413316573336926, 0.047334166404403036, 0.2622395999306886, 0.3083426180139398, 0.43595731003559013, 0.4024658168609784, 0.9520836388544701], [0.7510515585439115, -0.482922301193775, 1.1165140268679608, -0.5350909967351517, -0.8894090580974149, -2.0820368531343596, -1.5450194224473721, 0.3667104706468131, -0.5227383251939711, -0.2526052574967246, 0.5472605164476474, 1.5893614252122912, -1.2984113399807373, 0.9334290417225238, -0.5478772859259414, 0.17310229624388151, -1.7251361141003587, -1.2311041708981931, 0.2264005040694527, -1.5203684585582133], [0.12087382589889446, -0.49722438595038615, 0.1783236296637686, 0.17187486434092317, -0.20462213207939448, 0.5871627439350833, 0.005228660185275219, -0.1267540414629378, 0.15469302521759817, 0.04204651849890242, 0.3968675635210017, 0.509072890995626, -0.1416461856340105, 0.2573592162318716, 0.04562026917359879, 0.3684598270198031, 0.3607701827959874, 0.18307133328860714, 0.34230550914267593, 0.4439662088660423], [1.2071689125326266, -1.013930838422405, 2.4738152252159304, -1.3693571763386032, -1.3052806105014605, -4.251500979901769, -3.0293969600940285, 1.1218026716577245, -1.0715480083842401, 0.0758067705919657, 0.7107946012506611, 3.3816082087628194, -3.0922387277891934, 2.030820909224313, -1.5913365258335086, 0.7031403981167409, -2.8636237843717396, -2.7845412456160585, 1.4037365124145644, -2.914591906799267], [0.21905007450377714, -0.5147964012131413, -0.08905019639938196, 0.3548550279640128, 0.39781792507598024, -0.4242306111502064, -0.30996062354584997, -0.4469495902665706, -0.19439342286755656, 0.12410600446995514, -0.5372861036823284, -0.39329448256509064, 0.2711985132058181, 0.017161780035742674, 0.07966964128392327, 0.6052069276811408, -0.154842425493025, -0.026844777717380336, -0.3754125574319512, -0.46331848293517514], [1.5528074651212245, -0.11880390034134912, 0.22786801269236703, 0.37077310298433697, -0.6693284145601338, 2.139047731030958, -0.2952347170326425, -1.3840687959735523, -0.03833227154861048, -0.6561638636926957, 0.511349193189647, -2.0985860509689864, 1.708744309393976, -0.450185202101071, 1.098769857894681, 0.8149744399909139, 0.19641314978220348, 0.6126429243945569, -1.5611100528104387, -0.4170763464853859], [-0.0850592650323362, -0.8948704448936492, -0.31252409746475507, 0.4522094918888629, 0.17102448145090743, -0.1565823580321083, 0.09762988186983032, -0.75692826598265, -0.28023080300526876, 0.20144832053335834, -0.4823596296210192, 0.25720115246627284, -0.17208848316624423, -0.1620406939298476, -0.15229048470945544, 0.9062756820011575, 0.32024665965736676, 0.4418772997960855, 0.08059059330258231, 0.5860395581691739], [2.012965196514427, 0.016748063186848922, 1.1426424210168542, 0.4169913593394805, -0.9600988267797388, 2.0190972243101757, -1.1714975059321362, -1.4071760134306843, -0.002962230792230872, -0.9983953872695169, 0.6757463332212563, -2.3889162231434518, 2.1257664421537803, -0.19832502080809605, 1.489156443196763, 0.6301486257934183, -0.6592729100412296, 0.04550524976833593, -2.0958876731507603, -1.7050965897080035], [0.2303332858314228, -1.162113831235346, 0.44071201925193226, 0.4122316341350737, -0.05313647067901384, 0.036454655071597016, -0.48710420861726467, -0.8141499647531654, -0.42198406011068573, 0.26122402683379187, -0.2579623012441863, -0.16947427179503052, -0.06346060554834403, 0.4707867332105554, 0.07014036162347774, 1.0800515815698033, -0.0037689368297712036, 0.04543750967981094, -0.11180094488335499, -0.2933430723871614], [0.4286251535202606, 0.012018174114896307, -0.9886373554909434, 0.5110142714512717, -0.6449628272458973, 0.7446311758008984, 0.9458477931294987, -1.5360787689254742, 0.17417186916827665, -0.06748209159878456, 0.013440748777681838, 0.7537205573202138, -0.11552657479188054, -0.4792162958662204, 0.11791131800934777, 0.6964113235244794, 0.4045918307162869, 1.2708689561236985, -0.08120483161900804, 1.9043799903698242], [0.6440628155981437, -1.29356327864642, 0.8943925698866738, 0.41690257260145835, 0.1250386819670118, 0.4158893164742676, -0.9834064143629401, -0.8580011516717526, -0.5100852612758993, 0.07195777746112905, -0.05083417291864683, -0.7650292440927883, 0.3130825470937935, 1.399378458478653, 0.3032181925293701, 1.3126071094869751, -0.14784478098547277, -0.23589569166352853, -0.6174759129809435, -1.1994086652167155], [-1.5965460182727098, -0.11432082509403974, -3.574373458465644, 0.7333175701612894, -0.47932896263606484, -0.5223355793887107, 3.7258410759521277, -1.9819255194102097, 0.692058198569158, 0.6825374948201738, -0.5978867237834258, 4.302123833684698, -2.6750160526236244, -1.6149824137593753, -1.2593456121255666, 0.4294237285402108, 1.6449947532721465, 3.032790595639306, 2.284297584996322, 6.788687288988891]], "weights_hidden_output": [[-1.531859985376303, 2.5899224473582874, -3.107819710883293, 3.8433178558860033, -2.532070593815086], [0.2186923826703143, -2.384256485283279, 0.550242623097695, -1.2406072430755744, 4.0768275675378085], [-1.9549807081373665, 3.3487841541186976, -4.266862799664345, 1.7063287483152667, -0.34263183719300006], [-1.3918262522287594, -1.825974968258327, 0.4443383024283491, -0.42327310497999093, -0.7219453029515895], [3.6278060760661104, -4.055650038318684, -0.9125816844833733, -1.65120502699419, -0.08473194310152737], [-2.6902799293532196, -4.039130004566148, 1.7654315278315604, 2.1503395083364545, -1.045447912110984], [-0.6410384829106432, -2.110895359683788, 3.835785738245689, -2.5085891135421354, 0.679728855253507], [2.1352611160793034, -1.8781735290540984, -3.7920904018134194, -4.881231498678021, 3.2207163384803086], [-1.2154116036798013, -0.9681057034799493, 0.836512732329878, -0.9940024332419319, 1.4833834006788298], [1.6928990483802537, -1.0936831441600072, -1.006319895687939, -2.4557317845052657, -1.2228077364472887], [-2.722878548036634, 2.6867797593609546, -0.771032015571176, 0.46839130229001563, 1.1957909154776456], [1.7924590459472747, 3.4447783130111316, -0.5938110586430796, -5.267544886268955, -3.3990512570342597], [-2.0380145636838964, -2.886923208251302, -0.3674385140059611, 2.656039360913222, 2.504907930999469], [5.272761372385867, -3.9148735656323046, -5.5260429513978035, -1.6448253045385035, -1.3589174689814274], [-2.4572258430608813, -1.797153048568728, -0.10779003558215, 1.3443886609507438, 1.7577937775860661], [0.5695989095476381, 2.8496410083604133, -1.342167463136706, 3.4697762564296464, -7.057242948507169], [0.36414523702445983, -2.5177426755909185, 2.5148328925896895, -1.0313803269310644, -2.2354099733787005], [-1.9486467759146808, -2.2110694825347386, 3.4234688485026803, -0.9113815780142424, 0.09985525644002625], [1.447614293561922, 1.7324686170058476, -0.28970252311764194, -4.153542627957554, -0.45556554740113187], [-2.895736533367425, -0.11552227235476968, 6.360177694199639, -3.396524522124603, -1.5165139333566902]], "bias_hidden": [[-0.23509988765204312, 0.04675467072917863, 0.2683176532834974, 0.1671135598657792, -0.3682556250942484, -0.7123265420063428, 0.6373634932817396, -1.4377319699443203, 0.23280808248734466, 0.07539604457144593, 0.3929217049869869, 1.19623422149047, -0.3423238239636316, -0.8465337666553734, 0.02238513403763509, -0.049504873286744876, -0.5301069169368451, 0.6639971920506579, 0.5661374906521153, 1.2783407124648944]], "bias_output": [[0.3080977372871146, -0.07635624058103742, -0.9550050810012892, -0.8193670210033013, 0.33186137072775956]]}